    0.693597201985339917E+00   -0.185457557991906885E+01    0.399840024008712557E-02    0.225317356861595297E+06
    0.693181830345782402E+00   -0.184990442312788694E+01    0.399840031269819030E-02    0.225317476369413722E+06
    0.692744848931796109E+00   -0.185332351128660489E+01    0.399840036627320712E-02    0.225317694331388309E+06
    0.692822937213403822E+00   -0.185375164352482202E+01    0.399840034975368266E-02    0.225318367952688510E+06
    0.692941788134230796E+00   -0.185401822200205402E+01    0.399840034852332916E-02    0.225318380480920605E+06
    0.692821049555043644E+00   -0.185409771497211606E+01    0.399840035926102809E-02    0.225318382552784315E+06
    0.693040498581585007E+00   -0.185520018734844361E+01    0.399840033054661703E-02    0.225318667593495920E+06
    0.693386033739022523E+00   -0.185536265622632346E+01    0.399840027070081424E-02    0.225318880133812025E+06
    0.693374027297307016E+00   -0.185395288444052686E+01    0.399840026436595972E-02    0.225318943479624460E+06
    0.693119635716392346E+00   -0.185445549720985081E+01    0.399840030183988299E-02    0.225319118873793836E+06
    0.693262909317662102E+00   -0.185001421711133407E+01    0.399840029686929915E-02    0.225319302103200054E+06
    0.693026916071875276E+00   -0.185060042400349345E+01    0.399840033254410167E-02    0.225319612651022035E+06
    0.693058468264035499E+00   -0.185085267990962032E+01    0.399840031302791873E-02    0.225319635901492991E+06
    0.693410525941923206E+00   -0.185031538868532519E+01    0.399840027168600447E-02    0.225319678933969641E+06
    0.693464020364409239E+00   -0.185083976540586592E+01    0.399840025828094268E-02    0.225319682848847064E+06
    0.693436925087891454E+00   -0.185334304330956323E+01    0.399840025696230478E-02    0.225319863467189192E+06
    0.693352087520604288E+00   -0.185304307243117705E+01    0.399840026738695203E-02    0.225319906024365337E+06
    0.693338999412134283E+00   -0.185255172979617821E+01    0.399840029306364458E-02    0.225319922154719417E+06
    0.692980215010605027E+00   -0.185437438599805038E+01    0.399840033945759663E-02    0.225319946284222126E+06
    0.693042549277709918E+00   -0.185297580883895963E+01    0.399840031240471239E-02    0.225319956384587829E+06
    0.693262531828244377E+00   -0.185537105548734704E+01    0.399840029375064712E-02    0.225319978784999519E+06
    0.693454886466628673E+00   -0.185204348040094047E+01    0.399840025521603498E-02    0.225320004072007869E+06
    0.692835303869045349E+00   -0.185286230291011922E+01    0.399840035188039726E-02    0.225320106868853531E+06
    0.693399110663950213E+00   -0.185373205192754154E+01    0.399840028201469116E-02    0.225320110184497520E+06
    0.693481247057102679E+00   -0.185103220261394585E+01    0.399840025743674818E-02    0.225320178672498412E+06
    0.693001348215130486E+00   -0.185077002734617491E+01    0.399840033468874204E-02    0.225320201685614447E+06
    0.693450349090221851E+00   -0.185467082260600646E+01    0.399840026675124527E-02    0.225320227528895019E+06
    0.693212816550504263E+00   -0.185059467159479252E+01    0.399840030657160235E-02    0.225320263702016673E+06
    0.692898327690493088E+00   -0.185204090620682083E+01    0.399840033879049310E-02    0.225320297533808043E+06
    0.692949310840690780E+00   -0.185364956173196704E+01    0.399840034471166204E-02    0.225320330210399668E+06
    0.693215214762667453E+00   -0.185013020825329844E+01    0.399840029973637899E-02    0.225320360420909070E+06
    0.693138276727555569E+00   -0.185190247790201257E+01    0.399840029880537632E-02    0.225320398906509159E+06
    0.693117405240650686E+00   -0.185304316411790215E+01    0.399840030154880507E-02    0.225320477455472079E+06
    0.693123911009184468E+00   -0.185085071050775074E+01    0.399840030453454866E-02    0.225320510793464811E+06
    0.693386824640621735E+00   -0.185124056781236379E+01    0.399840028178078451E-02    0.225320561894835351E+06
    0.693358050269766935E+00   -0.185270443666280404E+01    0.399840026783432161E-02    0.225320713302010932E+06
    0.693217098422120204E+00   -0.185273226167095295E+01    0.399840031024098572E-02    0.225320716079668986E+06
    0.693008729596360173E+00   -0.185078300887101310E+01    0.399840032579673078E-02    0.225320720577369328E+06
    0.693200103985054272E+00   -0.185118379671031374E+01    0.399840031023849293E-02    0.225320731621053361E+06
    0.693004423174089723E+00   -0.185247149744485196E+01    0.399840033865584907E-02    0.225320744139517337E+06
    0.693424197627305228E+00   -0.185151353424081999E+01    0.399840026172344157E-02    0.225320754071233445E+06
    0.693364867180490951E+00   -0.185305865698762173E+01    0.399840028747349124E-02    0.225320757895546005E+06
    0.693287895945962851E+00   -0.185135249512608935E+01    0.399840027926429056E-02    0.225320771285013325E+06
    0.693050620572654763E+00   -0.185056050304687680E+01    0.399840032151740649E-02    0.225320823288793588E+06
    0.692923223942964683E+00   -0.185136142527546310E+01    0.399840034174772652E-02    0.225320851570024242E+06
    0.693524644544971647E+00   -0.185356019526557469E+01    0.399840025506673948E-02    0.225320923682295921E+06
    0.693260579974200764E+00   -0.185472305524059200E+01    0.399840028647901070E-02    0.225320953384869790E+06
    0.693006409022823067E+00   -0.185327425583171301E+01    0.399840033761313801E-02    0.225320968346056092E+06
    0.693259543310195903E+00   -0.185322286162063810E+01    0.399840028172967869E-02    0.225320978116098850E+06
    0.693379588857006013E+00   -0.185470760688626868E+01    0.399840027317140915E-02    0.225321012661579793E+06
    0.693009823553475846E+00   -0.185460520247188576E+01    0.399840032734492378E-02    0.225321025980678416E+06
    0.693247993023900722E+00   -0.185218468479721876E+01    0.399840030480334754E-02    0.225321111476120277E+06
    0.692953958054785102E+00   -0.185130515308779531E+01    0.399840033435145108E-02    0.225321121380588389E+06
    0.693150536349920521E+00   -0.185442090503356205E+01    0.399840031540415163E-02    0.225321122964777169E+06
    0.692936191045941730E+00   -0.185195589702625085E+01    0.399840033452764435E-02    0.225321234656535555E+06
    0.693454149910051609E+00   -0.185150290959333597E+01    0.399840026846508354E-02    0.225321260125230096E+06
    0.693230239954264027E+00   -0.185119051253587585E+01    0.399840028885505103E-02    0.225321262124559755E+06
    0.693217850661952406E+00   -0.185496795736799402E+01    0.399840030007277570E-02    0.225321272665292636E+06
    0.693339444060301568E+00   -0.185465856724881317E+01    0.399840028430379409E-02    0.225321292356936523E+06
    0.693101460573559924E+00   -0.185189290394736750E+01    0.399840030607222924E-02    0.225321293681082578E+06
    0.693349756977930998E+00   -0.185085037267428887E+01    0.399840028344067549E-02    0.225321293859687139E+06
    0.693138998531757089E+00   -0.185490667772187900E+01    0.399840031130037181E-02    0.225321308449141070E+06
    0.692894961689997868E+00   -0.185263715113004523E+01    0.399840034307893683E-02    0.225321331598191842E+06
    0.693129604217778805E+00   -0.185343775373946174E+01    0.399840030158431399E-02    0.225321337446831021E+06
    0.693060356698897428E+00   -0.185431052934902474E+01    0.399840031569728086E-02    0.225321373263067566E+06
    0.693445758198732887E+00   -0.185129135942797651E+01    0.399840026385205743E-02    0.225321387306743272E+06
    0.693110505360961748E+00   -0.185360161029537696E+01    0.399840030495433960E-02    0.225321394689158624E+06
    0.693478999697396459E+00   -0.185156895175421798E+01    0.399840026123731828E-02    0.225321397458762920E+06
    0.693360358791207831E+00   -0.185460531237329063E+01    0.399840027562190035E-02    0.225321402889378718E+06
    0.693498119051410011E+00   -0.185350612716640684E+01    0.399840025952528585E-02    0.225321425035834225E+06
    0.693389819587095224E+00   -0.185417468710650524E+01    0.399840026866952851E-02    0.225321428832738660E+06
    0.693336726881201071E+00   -0.185071666383769795E+01    0.399840028229467553E-02    0.225321479146667087E+06
    0.692937617637329861E+00   -0.185353234208063777E+01    0.399840034230036692E-02    0.225321486349602812E+06
    0.693113486526788614E+00   -0.185113242248008691E+01    0.399840030720472178E-02    0.225321491573176580E+06
    0.693483011955338347E+00   -0.185211368272346188E+01    0.399840026413380949E-02    0.225321503360885545E+06
    0.693404117014223220E+00   -0.185104417711959490E+01    0.399840027289586220E-02    0.225321526088111248E+06
    0.693373083888967234E+00   -0.185145070913764243E+01    0.399840026994842217E-02    0.225321557059098122E+06
    0.693042609592472880E+00   -0.185434834812202287E+01    0.399840031992253556E-02    0.225321561320479057E+06
    0.693407057485544209E+00   -0.185414570860948791E+01    0.399840027504857597E-02    0.225321563296589360E+06
    0.693354288489100856E+00   -0.185302302440105482E+01    0.399840027006664097E-02    0.225321586370492645E+06
    0.693346289003083038E+00   -0.185463858491797473E+01    0.399840028021190928E-02    0.225321593919290957E+06
    0.692983582493940209E+00   -0.185355248460273958E+01    0.399840033793168528E-02    0.225321595766659826E+06
    0.693116315717663412E+00   -0.185475618324912706E+01    0.399840031422709751E-02    0.225321606953696668E+06
    0.693189548563279412E+00   -0.185440329071729093E+01    0.399840030880708758E-02    0.225321607312072039E+06
    0.692920209035062906E+00   -0.185240779866012861E+01    0.399840034445556394E-02    0.225321613620681659E+06
    0.693215339419524623E+00   -0.185191474775720577E+01    0.399840030826880376E-02    0.225321628866706451E+06
    0.693058840803708720E+00   -0.185165716300478644E+01    0.399840032867729983E-02    0.225321659909661626E+06
    0.693248359189410301E+00   -0.185432130107381687E+01    0.399840030052125549E-02    0.225321662203249871E+06
    0.693504239860978866E+00   -0.185232545830692930E+01    0.399840025726172933E-02    0.225321666144481569E+06
    0.693082420925027032E+00   -0.185410913562922230E+01    0.399840032433155038E-02    0.225321668162293819E+06
    0.693242625394578815E+00   -0.185210257495320074E+01    0.399840028549187931E-02    0.225321673654623941E+06
    0.693480594063191069E+00   -0.185311216533394418E+01    0.399840026427541323E-02    0.225321697405252227E+06
    0.693491012876433888E+00   -0.185203148937012418E+01    0.399840025901022651E-02    0.225321707938808569E+06
    0.693466484839232344E+00   -0.185169739107163744E+01    0.399840026383934972E-02    0.225321731729096384E+06
    0.693183016890276615E+00   -0.185205763231297027E+01    0.399840029424390966E-02    0.225321734411388403E+06
    0.693398133796327421E+00   -0.185111156918836173E+01    0.399840027365904079E-02    0.225321734672796447E+06
    0.692997877532600115E+00   -0.185361550260832031E+01    0.399840032471174712E-02    0.225321739134375181E+06
    0.693203602671201735E+00   -0.185061664681091287E+01    0.399840030005107778E-02    0.225321739915220940E+06
    0.692947373433377867E+00   -0.185363881607601666E+01    0.399840033943153848E-02    0.225321740727944940E+06
    0.693297600510267786E+00   -0.185470795979396974E+01    0.399840028795489088E-02    0.225321741888008954E+06
    0.693015996763082676E+00   -0.185137774245197306E+01    0.399840032355402216E-02    0.225321747384189512E+06
    0.692999625898487959E+00   -0.185417787475285678E+01    0.399840033109558936E-02    0.225321768623026350E+06
    0.693367070090854298E+00   -0.185327498115803002E+01    0.399840028480766534E-02    0.225321773799923452E+06
    0.693007715785429967E+00   -0.185141525172452104E+01    0.399840032505385801E-02    0.225321776275951503E+06
    0.693098673556313161E+00   -0.185390604760956434E+01    0.399840030854038513E-02    0.225321779868516518E+06
    0.693154942141998465E+00   -0.185465728826373555E+01    0.399840031063646625E-02    0.225321786039783765E+06
    0.693073274483547053E+00   -0.185259177980244538E+01    0.399840031078556573E-02    0.225321811599114037E+06
    0.693376398268151561E+00   -0.185297957294718119E+01    0.399840026779975984E-02    0.225321812538481347E+06
    0.693277119380298013E+00   -0.185228390372293350E+01    0.399840029923338291E-02    0.225321813873861596E+06
    0.693222054639621832E+00   -0.185283269693767627E+01    0.399840030759676668E-02    0.225321827709603269E+06
    0.693222054639621832E+00   -0.185283269693767627E+01    0.399840030759676668E-02    0.225321827709603269E+06
    0.693237702550059898E+00   -0.185279076437242329E+01    0.399840028606307171E-02    0.225321840959447931E+06
    0.693162167797926165E+00   -0.185354002311125021E+01    0.399840031526980944E-02    0.225321842796835903E+06
    0.693230324943305831E+00   -0.185445548658463899E+01    0.399840030173137604E-02    0.225321864329725417E+06
    0.693231274803590591E+00   -0.185403420964815768E+01    0.399840028927545433E-02    0.225321879640176747E+06
    0.693231274803590591E+00   -0.185403420964815768E+01    0.399840028927545433E-02    0.225321879640176747E+06
    0.693012579891125746E+00   -0.185136039570183875E+01    0.399840032507169617E-02    0.225321883722039056E+06
    0.693240602563528374E+00   -0.185465648685946771E+01    0.399840029801019469E-02    0.225321884011808230E+06
    0.693325664458436242E+00   -0.185093307362619464E+01    0.399840028046303045E-02    0.225321892186566402E+06
    0.693379917598596296E+00   -0.185152720133521531E+01    0.399840026993450188E-02    0.225321907154595188E+06
    0.693028547563918518E+00   -0.185168329716684488E+01    0.399840033157461503E-02    0.225321911206684250E+06
    0.693473834516721066E+00   -0.185214254627167718E+01    0.399840025917199467E-02    0.225321911896356120E+06
    0.693407567773358546E+00   -0.185416442307602991E+01    0.399840027191756837E-02    0.225321916068430524E+06
    0.693393159703661888E+00   -0.185125207676471115E+01    0.399840027574185734E-02    0.225321918205548340E+06
    0.692945582671908422E+00   -0.185344565215514856E+01    0.399840033938894494E-02    0.225321935474192695E+06
    0.692999731489692183E+00   -0.185360447361592651E+01    0.399840032500847764E-02    0.225321937725680298E+06
    0.693486910595778383E+00   -0.185314125568455901E+01    0.399840025920788524E-02    0.225321938588464109E+06
    0.693048406993939659E+00   -0.185427166913492059E+01    0.399840032583445061E-02    0.225321944786280714E+06
    0.693144500043219036E+00   -0.185118929858423975E+01    0.399840030337926273E-02    0.225321963339022564E+06
    0.693014954235166347E+00   -0.185161771774312833E+01    0.399840033242043411E-02    0.225321988654665009E+06
    0.693201631894255099E+00   -0.185078665427806399E+01    0.399840030345526443E-02    0.225321990041631303E+06
    0.692927254099882317E+00   -0.185283928724524838E+01    0.399840034147890249E-02    0.225321991451633279E+06
    0.692927254099882317E+00   -0.185283928724524838E+01    0.399840034147890249E-02    0.225321991451633279E+06
    0.693080804252689475E+00   -0.185102814539834615E+01    0.399840031560078600E-02    0.225321995185980573E+06
    0.693376132457306671E+00   -0.185275104624007581E+01    0.399840026817829298E-02    0.225321998393406509E+06
    0.693005542955442921E+00   -0.185381241040829714E+01    0.399840032512921179E-02    0.225321998747899837E+06
    0.693277216874696789E+00   -0.185350665985675889E+01    0.399840028166976134E-02    0.225321998996778915E+06
    0.693081728717877765E+00   -0.185139511815937441E+01    0.399840031256421154E-02    0.225322000147989049E+06
    0.693081728717877765E+00   -0.185139511815937441E+01    0.399840031256421154E-02    0.225322000147989049E+06
    0.693256651246857869E+00   -0.185124446009324917E+01    0.399840028685578136E-02    0.225322001405443705E+06
    0.693302258126062720E+00   -0.185371305158398059E+01    0.399840029380005638E-02    0.225322002601544722E+06
    0.693292439246705805E+00   -0.185225794293401158E+01    0.399840027912522471E-02    0.225322005264829379E+06
    0.693063965677100935E+00   -0.185405704015009309E+01    0.399840031577538592E-02    0.225322025155872077E+06
    0.693052348853325006E+00   -0.185184698081393617E+01    0.399840032899972074E-02    0.225322048390685028E+06
    0.693470793640164507E+00   -0.185334482123659727E+01    0.399840026103055399E-02    0.225322051770957070E+06
    0.693470793640164507E+00   -0.185334482123659727E+01    0.399840026103055399E-02    0.225322051770957070E+06
    0.693139716619179058E+00   -0.185124312952680947E+01    0.399840031562050113E-02    0.225322053252942889E+06
    0.693061707373987756E+00   -0.185216904791445636E+01    0.399840032855247607E-02    0.225322055961436097E+06
    0.693239950521396975E+00   -0.185466556759468593E+01    0.399840029619449693E-02    0.225322059611681645E+06
    0.693239950521396975E+00   -0.185466556759468593E+01    0.399840029619449693E-02    0.225322059611681645E+06
    0.693006420994756511E+00   -0.185258311548271148E+01    0.399840033541894006E-02    0.225322059803471755E+06
    0.693310299324477630E+00   -0.185120050525422930E+01    0.399840029011280101E-02    0.225322060407453944E+06
    0.693313394465668198E+00   -0.185226011413357305E+01    0.399840029305863556E-02    0.225322062260054547E+06
    0.693483694104028658E+00   -0.185282590915009537E+01    0.399840025909914930E-02    0.225322070830652345E+06
    0.692932707955037142E+00   -0.185287501327398019E+01    0.399840033895735789E-02    0.225322090346719633E+06
    0.693174783586946508E+00   -0.185261212063635172E+01    0.399840029565598411E-02    0.225322093848692282E+06
    0.693415681691850638E+00   -0.185397147719926148E+01    0.399840027121445545E-02    0.225322105186596862E+06
    0.693238991571234364E+00   -0.185079127422642076E+01    0.399840029619936022E-02    0.225322133772502362E+06
    0.693061634597568865E+00   -0.185219634754594753E+01    0.399840031379014409E-02    0.225322135350292723E+06
    0.693125533581237296E+00   -0.185292762344032447E+01    0.399840030324811850E-02    0.225322140718889888E+06
    0.693405339353641126E+00   -0.185290501794955564E+01    0.399840026525266189E-02    0.225322142600190418E+06
    0.693106512486942994E+00   -0.185409387248916468E+01    0.399840031995374150E-02    0.225322149516113277E+06
    0.693018232845846516E+00   -0.185372401326450964E+01    0.399840033169810392E-02    0.225322175840407377E+06
    0.693129272859694057E+00   -0.185244837922447525E+01    0.399840031984263246E-02    0.225322190391058684E+06
    0.692961922262031016E+00   -0.185319386748669301E+01    0.399840033250593516E-02    0.225322201395548909E+06
    0.693054199346869737E+00   -0.185289282727654880E+01    0.399840032943464801E-02    0.225322217441439105E+06
    0.693054199346869737E+00   -0.185289282727654880E+01    0.399840032943464801E-02    0.225322217441439105E+06
    0.693126373350349212E+00   -0.185383067885127950E+01    0.399840031840017519E-02    0.225322222481210163E+06
    0.693126373350349212E+00   -0.185383067885127950E+01    0.399840031840017519E-02    0.225322222481210163E+06
    0.693188598501365272E+00   -0.185082502836323282E+01    0.399840030359425742E-02    0.225322224648386094E+06
    0.693423733614289217E+00   -0.185160079277512857E+01    0.399840026932838603E-02    0.225322248753799795E+06
    0.693386679174982201E+00   -0.185136105819014363E+01    0.399840027600308415E-02    0.225322251773186552E+06
    0.693225297439699406E+00   -0.185108999397349638E+01    0.399840030198840134E-02    0.225322258308349090E+06
    0.693105269475349672E+00   -0.185417362946525310E+01    0.399840031028368334E-02    0.225322258412809373E+06
    0.693007529372649311E+00   -0.185151520841374562E+01    0.399840032742230199E-02    0.225322268128668482E+06
    0.693273590178621779E+00   -0.185340406955460812E+01    0.399840028257097621E-02    0.225322272586505918E+06
    0.693259214262184731E+00   -0.185326492748401939E+01    0.399840028431047885E-02    0.225322277341138368E+06
    0.692969700655856391E+00   -0.185352479508888823E+01    0.399840033370153173E-02    0.225322285130867560E+06
    0.693184683434693527E+00   -0.185409219101471590E+01    0.399840030918406728E-02    0.225322288968239882E+06
    0.693169754834874974E+00   -0.185455881763363939E+01    0.399840030631882278E-02    0.225322291146796575E+06
    0.693381825921931205E+00   -0.185144429382090747E+01    0.399840027777479366E-02    0.225322298732181051E+06
    0.693113795822382639E+00   -0.185209403941355055E+01    0.399840030591933591E-02    0.225322300889717240E+06
    0.693113795822382639E+00   -0.185209403941355055E+01    0.399840030591933591E-02    0.225322300889717240E+06
    0.693399354280521907E+00   -0.185146873711638760E+01    0.399840027091162738E-02    0.225322305945007422E+06
    0.693403348055607105E+00   -0.185146779089006874E+01    0.399840027230662001E-02    0.225322311272081075E+06
    0.693403348055607105E+00   -0.185146779089006874E+01    0.399840027230662001E-02    0.225322311272081075E+06
    0.693382349881982329E+00   -0.185410115543311838E+01    0.399840027422220575E-02    0.225322319601549068E+06
    0.693176411314929908E+00   -0.185220149949890889E+01    0.399840029622018124E-02    0.225322321737127932E+06
    0.693439224715349689E+00   -0.185343556485859295E+01    0.399840026440812565E-02    0.225322347252129402E+06
    0.693153701225010632E+00   -0.185451879790959073E+01    0.399840030755880659E-02    0.225322355400452041E+06
    0.693153701225010632E+00   -0.185451879790959073E+01    0.399840030755880659E-02    0.225322355400452041E+06
    0.693400379765111374E+00   -0.185200440604311867E+01    0.399840027698575469E-02    0.225322364400092920E+06
    0.693176104737317389E+00   -0.185431456298291142E+01    0.399840030039615244E-02    0.225322366727183398E+06
    0.693237251335135474E+00   -0.185288602829905669E+01    0.399840030425984393E-02    0.225322368805865670E+06
    0.692971146900944523E+00   -0.185303652795034624E+01    0.399840033095174695E-02    0.225322374253959861E+06
    0.692949674475217936E+00   -0.185287508879803076E+01    0.399840033732063414E-02    0.225322377836944594E+06
    0.692950864252812160E+00   -0.185250361157513965E+01    0.399840033674160253E-02    0.225322383731901471E+06
    0.693318652283379411E+00   -0.185375347015007108E+01    0.399840028996621341E-02    0.225322394877138897E+06
    0.693318652283379411E+00   -0.185375347015007108E+01    0.399840028996621341E-02    0.225322394877138897E+06
    0.692976791127184910E+00   -0.185219626372482482E+01    0.399840033627854412E-02    0.225322397851224698E+06
    0.693087922070660278E+00   -0.185252857366729629E+01    0.399840030977234844E-02    0.225322399218009086E+06
    0.693367208782882494E+00   -0.185221967910557517E+01    0.399840028331293826E-02    0.225322402639086242E+06
    0.693295262645463262E+00   -0.185101705977686226E+01    0.399840028634203259E-02    0.225322405732307787E+06
    0.692952353202862970E+00   -0.185276938214759745E+01    0.399840033776917379E-02    0.225322410531461734E+06
    0.693027073426510154E+00   -0.185388695490882416E+01    0.399840032850873068E-02    0.225322420501091110E+06
    0.693306282688057163E+00   -0.185257841341460372E+01    0.399840027796085143E-02    0.225322423799480108E+06
    0.693196382224791297E+00   -0.185449974209487012E+01    0.399840030017480953E-02    0.225322428059007187E+06
    0.693287619906863939E+00   -0.185412682716924637E+01    0.399840029302904985E-02    0.225322430799804628E+06
    0.693168960081475771E+00   -0.185313262390359501E+01    0.399840031371002328E-02    0.225322441654275841E+06
    0.693307078845095681E+00   -0.185228655285287713E+01    0.399840027815120957E-02    0.225322445306800248E+06
    0.693264918059742774E+00   -0.185382929211930914E+01    0.399840028534873687E-02    0.225322445425567334E+06
    0.693135727927960632E+00   -0.185412611787715020E+01    0.399840030574939807E-02    0.225322466977123811E+06
    0.693034476603262783E+00   -0.185197894811666552E+01    0.399840033010155117E-02    0.225322467611217493E+06
    0.693034476603262783E+00   -0.185197894811666552E+01    0.399840033010155117E-02    0.225322467611217493E+06
    0.693220225836605808E+00   -0.185193570041640854E+01    0.399840029067925415E-02    0.225322476602368813E+06
    0.693162387294433024E+00   -0.185311174437363690E+01    0.399840031456080713E-02    0.225322478844653902E+06
    0.693305938516922682E+00   -0.185136657665162430E+01    0.399840029031064362E-02    0.225322481665354979E+06
    0.693096522123557213E+00   -0.185285225374257667E+01    0.399840032351268283E-02    0.225322489749633387E+06
    0.692995267233213363E+00   -0.185358987041811951E+01    0.399840032883907320E-02    0.225322489754665847E+06
    0.693067740495308726E+00   -0.185346990154623192E+01    0.399840032614259128E-02    0.225322491319231543E+06
    0.693286289568046610E+00   -0.185369790620533581E+01    0.399840029508725676E-02    0.225322493905936077E+06
    0.693418030026274668E+00   -0.185251412581370056E+01    0.399840026517677468E-02    0.225322498017581966E+06
    0.693008599146393234E+00   -0.185292635728145139E+01    0.399840032374266467E-02    0.225322498066620930E+06
    0.693256728854526161E+00   -0.185297437553145783E+01    0.399840028484492373E-02    0.225322502536325483E+06
    0.693167062054940275E+00   -0.185303850412958138E+01    0.399840029781325847E-02    0.225322515566520713E+06
    0.693167062054940275E+00   -0.185303850412958138E+01    0.399840029781325847E-02    0.225322515566520713E+06
    0.693038293669072325E+00   -0.185141373133656195E+01    0.399840032433398593E-02    0.225322519229853147E+06
    0.693362497719473558E+00   -0.185146377271656726E+01    0.399840027489142911E-02    0.225322525125371933E+06
    0.693077076375887668E+00   -0.185176957484901150E+01    0.399840031342438632E-02    0.225322535895886540E+06
    0.693269275473471835E+00   -0.185273909713728258E+01    0.399840029910182668E-02    0.225322544414444623E+06
    0.693269275473471835E+00   -0.185273909713728258E+01    0.399840029910182668E-02    0.225322544414444623E+06
    0.693294556221949132E+00   -0.185319329706960523E+01    0.399840029483811837E-02    0.225322545951715496E+06
    0.693294556221949132E+00   -0.185319329706960523E+01    0.399840029483811837E-02    0.225322545951715496E+06
    0.692999288211606945E+00   -0.185323975495612259E+01    0.399840032634811871E-02    0.225322546879067464E+06
    0.693176202016748788E+00   -0.185225346337322483E+01    0.399840031239990894E-02    0.225322565351338621E+06
    0.693400168959379837E+00   -0.185166681697334035E+01    0.399840027378268320E-02    0.225322567310526792E+06
    0.693241132758989465E+00   -0.185380053498571362E+01    0.399840030145668952E-02    0.225322568396064395E+06
    0.693260215287329284E+00   -0.185113649674526171E+01    0.399840028946516542E-02    0.225322572863052337E+06
    0.693344829417208985E+00   -0.185294283961632589E+01    0.399840027351536578E-02    0.225322578236303641E+06
    0.693054880880647373E+00   -0.185203138032632486E+01    0.399840032760393968E-02    0.225322582821619988E+06
    0.692971540139586284E+00   -0.185248507567326559E+01    0.399840033580287687E-02    0.225322609201385523E+06
    0.692971540139586284E+00   -0.185248507567326559E+01    0.399840033580287687E-02    0.225322609201385523E+06
    0.693208823237109639E+00   -0.185443576633456120E+01    0.399840029913829057E-02    0.225322610313639510E+06
    0.693303548904185107E+00   -0.185119497419823764E+01    0.399840028408244685E-02    0.225322612033414509E+06
    0.693303548904185107E+00   -0.185119497419823764E+01    0.399840028408244685E-02    0.225322612033414509E+06
    0.693262747205141250E+00   -0.185113047798868746E+01    0.399840028951344191E-02    0.225322616686852882E+06
    0.693067032349796941E+00   -0.185381546078129600E+01    0.399840031618368431E-02    0.225322617369987915E+06
    0.693190257700841084E+00   -0.185153828851681346E+01    0.399840029669063391E-02    0.225322619120662246E+06
    0.693342138418530429E+00   -0.185289306781760610E+01    0.399840027393620883E-02    0.225322623997597664E+06
    0.693256024575307328E+00   -0.185160129730598921E+01    0.399840028715797973E-02    0.225322632345117978E+06
    0.693256024575307328E+00   -0.185160129730598921E+01    0.399840028715797973E-02    0.225322632345117978E+06
    0.692972770560646656E+00   -0.185229811630450047E+01    0.399840033378641522E-02    0.225322634500499611E+06
    0.692972770560646656E+00   -0.185229811630450047E+01    0.399840033378641522E-02    0.225322634500499611E+06
    0.693167797835272936E+00   -0.185427438586190108E+01    0.399840030266784222E-02    0.225322636768783093E+06
    0.693391464907011090E+00   -0.185298276625557401E+01    0.399840027852439717E-02    0.225322647695110092E+06
    0.693269713348647398E+00   -0.185110798542631083E+01    0.399840029285310726E-02    0.225322650615583232E+06
    0.693039903742617369E+00   -0.185392578592985657E+01    0.399840032472973880E-02    0.225322660592155240E+06
    0.692990839403016201E+00   -0.185205625876344171E+01    0.399840033281884111E-02    0.225322663565576746E+06
    0.693105742016233539E+00   -0.185144591837148553E+01    0.399840031069892583E-02    0.225322670370394655E+06
    0.693046200784489641E+00   -0.185291027297874789E+01    0.399840032909588514E-02    0.225322673205109342E+06
    0.693046200784489641E+00   -0.185291027297874789E+01    0.399840032909588514E-02    0.225322673205109342E+06
    0.693218424201714090E+00   -0.185415613695130865E+01    0.399840030257740502E-02    0.225322674387130101E+06
    0.693258521924059901E+00   -0.185264420524684881E+01    0.399840028492202699E-02    0.225322677292914625E+06
    0.693212713663623137E+00   -0.185354131625179663E+01    0.399840030617086648E-02    0.225322680401245627E+06
    0.693233901197025881E+00   -0.185299296539286118E+01    0.399840030397904857E-02    0.225322685362307064E+06
    0.693012580234946274E+00   -0.185318834777793162E+01    0.399840033208863528E-02    0.225322692081595480E+06
    0.693128209473820145E+00   -0.185113724365980770E+01    0.399840031238222343E-02    0.225322694343970332E+06
    0.693011982303948115E+00   -0.185302752150596151E+01    0.399840033245690146E-02    0.225322699711846071E+06
    0.693270978133570526E+00   -0.185432638719454346E+01    0.399840028996181329E-02    0.225322700920278585E+06
    0.693233088308124468E+00   -0.185434182239086187E+01    0.399840029449795385E-02    0.225322703920877655E+06
    0.693136992787465989E+00   -0.185328631566345248E+01    0.399840031720937340E-02    0.225322704690274491E+06
    0.693032937836349450E+00   -0.185248322483440520E+01    0.399840032015483932E-02    0.225322744472623919E+06
    0.693292479763208069E+00   -0.185284252106291403E+01    0.399840028056644512E-02    0.225322757276257529E+06
    0.693213225911448294E+00   -0.185402962323894993E+01    0.399840030385852953E-02    0.225322758753760019E+06
    0.693191392190910416E+00   -0.185106969499208929E+01    0.399840030213144924E-02    0.225322763546615926E+06
    0.693428860219951981E+00   -0.185293433464645152E+01    0.399840027025960033E-02    0.225322773946250090E+06
    0.693238134654045934E+00   -0.185112251222797264E+01    0.399840029728926530E-02    0.225322777255720866E+06
    0.693433868557720712E+00   -0.185234635398901215E+01    0.399840026702820862E-02    0.225322781095452083E+06
    0.693349545474487239E+00   -0.185398355130894554E+01    0.399840028082103314E-02    0.225322781893260457E+06
    0.693135255072921286E+00   -0.185426765284515405E+01    0.399840031084150536E-02    0.225322788754514011E+06
    0.693135255072921286E+00   -0.185426765284515405E+01    0.399840031084150536E-02    0.225322788754514011E+06
    0.693156355472255514E+00   -0.185222019119568704E+01    0.399840031454260295E-02    0.225322792416280019E+06
    0.693214847398028522E+00   -0.185336926019483905E+01    0.399840030596816491E-02    0.225322795528280578E+06
    0.693132849053395339E+00   -0.185245569995313453E+01    0.399840031794006755E-02    0.225322803962924139E+06
    0.693207274575297627E+00   -0.185419986642606105E+01    0.399840030313056757E-02    0.225322811723537074E+06
    0.693285069904263196E+00   -0.185424623819943224E+01    0.399840028904537102E-02    0.225322811767269071E+06
    0.693017729129876026E+00   -0.185354496408056502E+01    0.399840032562617971E-02    0.225322812427189667E+06
    0.693189610784861632E+00   -0.185431028470996018E+01    0.399840030123463364E-02    0.225322813991267496E+06
    0.693199814055755370E+00   -0.185203508907816250E+01    0.399840030808453362E-02    0.225322814119680697E+06
    0.693199850849046895E+00   -0.185124127556862650E+01    0.399840029801153043E-02    0.225322819152185577E+06
    0.693125207465587700E+00   -0.185166388145668348E+01    0.399840031702186020E-02    0.225322828185071063E+06
    0.693369024580160587E+00   -0.185299000951252957E+01    0.399840027152179901E-02    0.225322835647891567E+06
    0.693369024580160587E+00   -0.185299000951252957E+01    0.399840027152179901E-02    0.225322835647891567E+06
    0.693270819557939233E+00   -0.185162129388797236E+01    0.399840029608103300E-02    0.225322840239022597E+06
    0.693350389463901151E+00   -0.185145776273359863E+01    0.399840027942996445E-02    0.225322841701002180E+06
    0.693063505650017286E+00   -0.185176639706034130E+01    0.399840032459349015E-02    0.225322850930182234E+06
    0.693213376965617245E+00   -0.185144370246387258E+01    0.399840030379378705E-02    0.225322860236887122E+06
    0.693242127731988789E+00   -0.185399543938347411E+01    0.399840029934814614E-02    0.225322862637878628E+06
    0.693220086689583570E+00   -0.185233727023705352E+01    0.399840029095496329E-02    0.225322864845573116E+06
    0.693394392095361911E+00   -0.185349316643651174E+01    0.399840027097368017E-02    0.225322872998277540E+06
    0.693394392095361911E+00   -0.185349316643651174E+01    0.399840027097368017E-02    0.225322872998277540E+06
    0.693100542081335202E+00   -0.185131386857749591E+01    0.399840031519755040E-02    0.225322873302644992E+06
    0.693100542081335202E+00   -0.185131386857749591E+01    0.399840031519755040E-02    0.225322873302644992E+06
    0.693167249015682274E+00   -0.185291863563740189E+01    0.399840029854914812E-02    0.225322874240746169E+06
    0.693167249015682274E+00   -0.185291863563740189E+01    0.399840029854914812E-02    0.225322874240746169E+06
    0.693140801105361581E+00   -0.185420924713913537E+01    0.399840030856049317E-02    0.225322894264441362E+06
    0.693375424044157973E+00   -0.185368556073405144E+01    0.399840027763953554E-02    0.225322894890449767E+06
    0.693343935923403598E+00   -0.185154486784456762E+01    0.399840028250388318E-02    0.225322900427167799E+06
    0.693343935923403598E+00   -0.185154486784456762E+01    0.399840028250388318E-02    0.225322900427167799E+06
    0.693132479285075043E+00   -0.185375158149045327E+01    0.399840030583406298E-02    0.225322901549713861E+06
    0.693186784588617155E+00   -0.185380282011814446E+01    0.399840029768397907E-02    0.225322905981804972E+06
    0.693237713491279939E+00   -0.185139559787398644E+01    0.399840029180871265E-02    0.225322911823273578E+06
    0.693197504300293810E+00   -0.185120696155004794E+01    0.399840030360499362E-02    0.225322913411205867E+06
    0.693215405646684157E+00   -0.185118227392115431E+01    0.399840030058235419E-02    0.225322914430978592E+06
    0.693178327677986705E+00   -0.185128529144878073E+01    0.399840030720852516E-02    0.225322914464849455E+06
    0.693390027738687853E+00   -0.185313884072428636E+01    0.399840027001694548E-02    0.225322927381840680E+06
    0.693122787077512958E+00   -0.185393787123894827E+01    0.399840031579876305E-02    0.225322933895446971E+06
    0.693122787077512958E+00   -0.185393787123894827E+01    0.399840031579876305E-02    0.225322933895446971E+06
    0.693316719341310783E+00   -0.185381151690580692E+01    0.399840028057999331E-02    0.225322955661088636E+06
    0.693276974897702902E+00   -0.185205163205503465E+01    0.399840029619649880E-02    0.225322955752315349E+06
    0.693190072108878619E+00   -0.185117727059575010E+01    0.399840030325576950E-02    0.225322959084130300E+06
    0.693158651830851236E+00   -0.185413101550662129E+01    0.399840030468071126E-02    0.225322971889227716E+06
    0.693158651830851236E+00   -0.185413101550662129E+01    0.399840030468071126E-02    0.225322971889227716E+06
    0.693195925046096173E+00   -0.185246476175763863E+01    0.399840029459470891E-02    0.225322975122491771E+06
    0.693218275464167366E+00   -0.185120814952723256E+01    0.399840029709015634E-02    0.225322977293115022E+06
    0.693218275464167366E+00   -0.185120814952723256E+01    0.399840029709015634E-02    0.225322977293115022E+06
    0.693121920897537436E+00   -0.185412313102709825E+01    0.399840031221958096E-02    0.225322987523657619E+06
    0.693173040650161942E+00   -0.185413797445350403E+01    0.399840030254454935E-02    0.225322988803285320E+06
    0.693400291490805176E+00   -0.185266078130193046E+01    0.399840026892430908E-02    0.225322990313472954E+06
    0.693220440089752588E+00   -0.185149275745811526E+01    0.399840030250677141E-02    0.225322994751764869E+06
    0.693403178494205519E+00   -0.185227548892495553E+01    0.399840027406477439E-02    0.225323001180310617E+06
    0.693134839634600763E+00   -0.185149867564963477E+01    0.399840030698317677E-02    0.225323004083804786E+06
    0.693030484229313903E+00   -0.185199860653349369E+01    0.399840032789495342E-02    0.225323004615607177E+06
    0.693126643141265930E+00   -0.185344363337237983E+01    0.399840031733597959E-02    0.225323007859913138E+06
    0.693365220876168586E+00   -0.185308218660067725E+01    0.399840028181617808E-02    0.225323009320495272E+06
    0.693365220876168586E+00   -0.185308218660067725E+01    0.399840028181617808E-02    0.225323009320495272E+06
    0.693078372051015634E+00   -0.185173887502858547E+01    0.399840031530247515E-02    0.225323011200327455E+06
    0.693358487388920808E+00   -0.185335882603154189E+01    0.399840028229867320E-02    0.225323016557768482E+06
    0.693299993128497882E+00   -0.185240469051126411E+01    0.399840029294192597E-02    0.225323023850201571E+06
    0.693331427554570223E+00   -0.185342575073287041E+01    0.399840028683469580E-02    0.225323033193953015E+06
    0.693331427554570223E+00   -0.185342575073287041E+01    0.399840028683469580E-02    0.225323033193953015E+06
    0.693363127331967588E+00   -0.185314264707194942E+01    0.399840027315067660E-02    0.225323033656166896E+06
    0.693279746126893470E+00   -0.185403704021350024E+01    0.399840028721619098E-02    0.225323045216269005E+06
    0.693267731078801797E+00   -0.185404954704459390E+01    0.399840028875170662E-02    0.225323046365587245E+06
    0.693109877506496885E+00   -0.185382000099431110E+01    0.399840031756592412E-02    0.225323047239031614E+06
    0.693345338584306470E+00   -0.185259255434078662E+01    0.399840027481689758E-02    0.225323047695792047E+06
    0.693419398512190477E+00   -0.185264342628433676E+01    0.399840026965439087E-02    0.225323052743368811E+06
    0.693191257153036200E+00   -0.185412035069937176E+01    0.399840029998749236E-02    0.225323056634623383E+06
    0.693346546298310384E+00   -0.185356254427270573E+01    0.399840027646013608E-02    0.225323059238866525E+06
    0.693236883736869980E+00   -0.185195739036770046E+01    0.399840028986352559E-02    0.225323063538770512E+06
    0.693289654902146002E+00   -0.185401810896991925E+01    0.399840028607125267E-02    0.225323063718633173E+06
    0.693240680760238703E+00   -0.185126184162151963E+01    0.399840029645171045E-02    0.225323063848307298E+06
    0.693240680760238703E+00   -0.185126184162151963E+01    0.399840029645171045E-02    0.225323063848307298E+06
    0.693208805068791123E+00   -0.185420050444941964E+01    0.399840030040361782E-02    0.225323066917502380E+06
    0.693124075372239967E+00   -0.185206986756868952E+01    0.399840030644113293E-02    0.225323068769595673E+06
    0.693107770671415380E+00   -0.185155535159969609E+01    0.399840031731221995E-02    0.225323071629678045E+06
    0.693107770671415380E+00   -0.185155535159969609E+01    0.399840031731221995E-02    0.225323071629678045E+06
    0.693417249310041117E+00   -0.185261175439130232E+01    0.399840026937749692E-02    0.225323073519246856E+06
    0.693094180210310551E+00   -0.185231163999013781E+01    0.399840031087934228E-02    0.225323083559769671E+06
    0.693094180210310551E+00   -0.185231163999013781E+01    0.399840031087934228E-02    0.225323083559769671E+06
    0.693208680250281484E+00   -0.185416331253686018E+01    0.399840029839353562E-02    0.225323086816264928E+06
    0.693285027922045716E+00   -0.185284365784183369E+01    0.399840029526109340E-02    0.225323087038436061E+06
    0.693334561824819340E+00   -0.185168557508334386E+01    0.399840028439637195E-02    0.225323089893076045E+06
    0.693363147786566270E+00   -0.185287826228376518E+01    0.399840028210874440E-02    0.225323097832852160E+06
    0.693008091282254712E+00   -0.185292720715034753E+01    0.399840032717502149E-02    0.225323101717994286E+06
    0.693008091282254712E+00   -0.185292720715034753E+01    0.399840032717502149E-02    0.225323101717994286E+06
    0.693220198603025972E+00   -0.185378058447415395E+01    0.399840029346248352E-02    0.225323108953628718E+06
    0.693328666010292971E+00   -0.185339059534924511E+01    0.399840028709417573E-02    0.225323118751573988E+06
    0.693117790076551166E+00   -0.185273200559314510E+01    0.399840031912963682E-02    0.225323123566451424E+06
    0.693021730655086876E+00   -0.185292969983284439E+01    0.399840032949745454E-02    0.225323137844726996E+06
    0.693021730655086876E+00   -0.185292969983284439E+01    0.399840032949745454E-02    0.225323137844726996E+06
    0.693180332315090353E+00   -0.185341231116183103E+01    0.399840030979621130E-02    0.225323146260385722E+06
    0.693282494656860537E+00   -0.185222367732038151E+01    0.399840029510521461E-02    0.225323146831142396E+06
    0.693108248179872599E+00   -0.185239912981186405E+01    0.399840032009600964E-02    0.225323146999276098E+06
    0.693298806786233124E+00   -0.185174865856746385E+01    0.399840029089424277E-02    0.225323155407022801E+06
    0.693335030603708047E+00   -0.185341336843724580E+01    0.399840027748693712E-02    0.225323157322832471E+06
    0.693381982694994625E+00   -0.185220560831890668E+01    0.399840027741486023E-02    0.225323159434322792E+06
    0.693128637359966104E+00   -0.185157131889866111E+01    0.399840030837654656E-02    0.225323170149190963E+06
    0.693079771069820993E+00   -0.185291389408806118E+01    0.399840032356601604E-02    0.225323171495061135E+06
    0.693243217113345467E+00   -0.185384162494757909E+01    0.399840029880073854E-02    0.225323174094842427E+06
    0.693124445606091211E+00   -0.185262413138791082E+01    0.399840030593248165E-02    0.225323174526966090E+06
    0.693124445606091211E+00   -0.185262413138791082E+01    0.399840030593248165E-02    0.225323174526966090E+06
    0.693289425221692679E+00   -0.185378182792850832E+01    0.399840029170107480E-02    0.225323179184314678E+06
    0.693289425221692679E+00   -0.185378182792850832E+01    0.399840029170107480E-02    0.225323179184314678E+06
    0.693276989930311838E+00   -0.185342938491728648E+01    0.399840029528162211E-02    0.225323184344678186E+06
    0.693165481503103642E+00   -0.185211160858218804E+01    0.399840031199198524E-02    0.225323187122323492E+06
    0.693263327297233833E+00   -0.185408012527938260E+01    0.399840029193152587E-02    0.225323190997924306E+06
    0.693009707535398589E+00   -0.185286859813213023E+01    0.399840032932628937E-02    0.225323191191804857E+06
    0.693237622139476373E+00   -0.185137160377609367E+01    0.399840029382929167E-02    0.225323192530665052E+06
    0.693237350167624999E+00   -0.185132312015151701E+01    0.399840029497920690E-02    0.225323194794598210E+06
    0.693025966795917991E+00   -0.185215306172112015E+01    0.399840032531489399E-02    0.225323194999165396E+06
    0.693344410992867588E+00   -0.185325845986732407E+01    0.399840028439209759E-02    0.225323197458183568E+06
    0.693172686004878469E+00   -0.185225685836889453E+01    0.399840029890924722E-02    0.225323201497486531E+06
    0.693180433372065252E+00   -0.185295513141847334E+01    0.399840029746670930E-02    0.225323201668985159E+06
    0.693089287746260663E+00   -0.185161994944221431E+01    0.399840031856587511E-02    0.225323203438326018E+06
    0.693246063295129167E+00   -0.185250960989197422E+01    0.399840028807534314E-02    0.225323213520805992E+06
    0.693246063295129167E+00   -0.185250960989197422E+01    0.399840028807534314E-02    0.225323213520805992E+06
    0.693314168670858044E+00   -0.185161609957940554E+01    0.399840028255714613E-02    0.225323214916853438E+06
    0.693240777218135595E+00   -0.185404339822908693E+01    0.399840029337326843E-02    0.225323219922092190E+06
    0.693092498776798793E+00   -0.185244810139099636E+01    0.399840032182549078E-02    0.225323224105728499E+06
    0.693196693040143197E+00   -0.185134402909568641E+01    0.399840030288147776E-02    0.225323226962947316E+06
    0.693075806015957863E+00   -0.185174475764144719E+01    0.399840032083201725E-02    0.225323228523790080E+06
    0.693235898931714667E+00   -0.185219097561139900E+01    0.399840030194726151E-02    0.225323232855670853E+06
    0.693193075097854883E+00   -0.185274884797589157E+01    0.399840030862834862E-02    0.225323235507556383E+06
    0.693299941925448637E+00   -0.185318112164452797E+01    0.399840028136828982E-02    0.225323244898033998E+06
    0.693047887839726262E+00   -0.185212664648942527E+01    0.399840032565191173E-02    0.225323245836479357E+06
    0.693205015400691904E+00   -0.185133215980273391E+01    0.399840030090763219E-02    0.225323247019560513E+06
    0.693037968098922152E+00   -0.185239856705703154E+01    0.399840032733959645E-02    0.225323255723163573E+06
    0.693177628082034314E+00   -0.185380411964386083E+01    0.399840030047422974E-02    0.225323259607935004E+06
    0.693123595814184368E+00   -0.185350769836297058E+01    0.399840030762972035E-02    0.225323260093716497E+06
    0.693162263183807359E+00   -0.185144288083503294E+01    0.399840030462762872E-02    0.225323261317405530E+06
    0.693138563780920758E+00   -0.185179442769723313E+01    0.399840030579584702E-02    0.225323264333820553E+06
    0.693069924675795646E+00   -0.185314453747691266E+01    0.399840031580311200E-02    0.225323265935250616E+06
    0.693190475670559692E+00   -0.185147511424080990E+01    0.399840029980527700E-02    0.225323267090649926E+06
    0.693333035157945532E+00   -0.185359459114343483E+01    0.399840027919484090E-02    0.225323267307749105E+06
    0.693333035157945532E+00   -0.185359459114343483E+01    0.399840027919484090E-02    0.225323267307749105E+06
    0.693031776033971036E+00   -0.185320607725130548E+01    0.399840032676739010E-02    0.225323271234762680E+06
    0.693031776033971036E+00   -0.185320607725130548E+01    0.399840032676739010E-02    0.225323271234762680E+06
    0.693208672742329002E+00   -0.185305609866909893E+01    0.399840029363420987E-02    0.225323274377698108E+06
    0.693346206356842520E+00   -0.185296587247670530E+01    0.399840027567577132E-02    0.225323275164129154E+06
    0.693144038148446384E+00   -0.185151155917602805E+01    0.399840030702101369E-02    0.225323276997771347E+06
    0.693248518377470146E+00   -0.185188842052642411E+01    0.399840029905223441E-02    0.225323284552089986E+06
    0.693063518712628168E+00   -0.185322444823185228E+01    0.399840032427933260E-02    0.225323287145709299E+06
    0.693267655632176627E+00   -0.185386806443530983E+01    0.399840028860808366E-02    0.225323295804500143E+06
    0.693151555930861196E+00   -0.185394806039447047E+01    0.399840030620737287E-02    0.225323299317863770E+06
    0.693287269361095637E+00   -0.185158437592864145E+01    0.399840029077380699E-02    0.225323311748280888E+06
    0.693262940347017298E+00   -0.185388544877917938E+01    0.399840029454157347E-02    0.225323311954875011E+06
    0.693299587133964001E+00   -0.185324357147657071E+01    0.399840029165937465E-02    0.225323317375431128E+06
    0.693299587133964001E+00   -0.185324357147657071E+01    0.399840029165937465E-02    0.225323317375431128E+06
    0.693381525854065206E+00   -0.185321255159787590E+01    0.399840027388163443E-02    0.225323318208314508E+06
    0.693381525854065206E+00   -0.185321255159787590E+01    0.399840027388163443E-02    0.225323318208314508E+06
    0.693067733323455726E+00   -0.185350151051122558E+01    0.399840031807136443E-02    0.225323318307544629E+06
    0.693123401366008363E+00   -0.185259642395956559E+01    0.399840031777217754E-02    0.225323323189043353E+06
    0.693158550212442437E+00   -0.185350693237419950E+01    0.399840031186800716E-02    0.225323323506430403E+06
    0.693028585179734424E+00   -0.185229178901896230E+01    0.399840032627298437E-02    0.225323324910733994E+06
    0.693028585179734424E+00   -0.185229178901896230E+01    0.399840032627298437E-02    0.225323324910733994E+06
    0.693240926598103324E+00   -0.185139787937100175E+01    0.399840029539127572E-02    0.225323326917748054E+06
    0.693331942639096810E+00   -0.185364054100989040E+01    0.399840028388247053E-02    0.225323333302015846E+06
    0.693033263921980169E+00   -0.185287509902700309E+01    0.399840032740623932E-02    0.225323333702498057E+06
    0.693261106470488331E+00   -0.185398900781101172E+01    0.399840029173595141E-02    0.225323335783732706E+06
    0.693066447412263309E+00   -0.185216816934522766E+01    0.399840032358541372E-02    0.225323346309622488E+06
    0.693206787784674705E+00   -0.185329066233767104E+01    0.399840030570490154E-02    0.225323350246000919E+06
    0.693340533961787853E+00   -0.185297688244852088E+01    0.399840028502489869E-02    0.225323351467974600E+06
    0.693260955136309254E+00   -0.185218633577279279E+01    0.399840029773655421E-02    0.225323354596174730E+06
    0.693288706948989919E+00   -0.185381709943373707E+01    0.399840029038600608E-02    0.225323355977277854E+06
    0.693121977651545929E+00   -0.185185591099721991E+01    0.399840030870316117E-02    0.225323364585509029E+06
    0.693288749744395250E+00   -0.185155699646053451E+01    0.399840028729034954E-02    0.225323370322327333E+06
    0.693152064728222439E+00   -0.185367654723980069E+01    0.399840030427566027E-02    0.225323373493845284E+06
    0.693230338179749217E+00   -0.185359338420258046E+01    0.399840030119804138E-02    0.225323373622761865E+06
    0.693163943192094512E+00   -0.185397808033079681E+01    0.399840030573171343E-02    0.225323378820541664E+06
    0.693262136312348676E+00   -0.185381791602766777E+01    0.399840029480343605E-02    0.225323386540175212E+06
    0.693241266152953672E+00   -0.185228838160944043E+01    0.399840028952422669E-02    0.225323387795371003E+06
    0.693024591949771618E+00   -0.185275291403304432E+01    0.399840032668731440E-02    0.225323390132983361E+06
    0.693047033991133654E+00   -0.185333569618712946E+01    0.399840032293137526E-02    0.225323391240390629E+06
    0.693150233714169506E+00   -0.185378285984982871E+01    0.399840030538764317E-02    0.225323391653932806E+06
    0.693257802201859508E+00   -0.185156386613927748E+01    0.399840029063063852E-02    0.225323402032377198E+06
    0.693152713955882738E+00   -0.185207919490027972E+01    0.399840030303643627E-02    0.225323406972259516E+06
    0.693282289144602437E+00   -0.185242786041467178E+01    0.399840028391301467E-02    0.225323408464599401E+06
    0.693340712121215952E+00   -0.185200713422674657E+01    0.399840028320881148E-02    0.225323418471859215E+06
    0.693340712121215952E+00   -0.185200713422674657E+01    0.399840028320881148E-02    0.225323418471859215E+06
    0.693222913690320408E+00   -0.185251959150864831E+01    0.399840030372124264E-02    0.225323420904356899E+06
    0.693331723927218646E+00   -0.185364512740488485E+01    0.399840028200189324E-02    0.225323422079980606E+06
    0.693166367739906364E+00   -0.185386429129948960E+01    0.399840030813818342E-02    0.225323425186177454E+06
    0.693269626965887231E+00   -0.185220980481481901E+01    0.399840029617304100E-02    0.225323428712128953E+06
    0.693310481311431914E+00   -0.185315543615838751E+01    0.399840028072954903E-02    0.225323432953339186E+06
    0.693216711060550828E+00   -0.185254885676571157E+01    0.399840029281091532E-02    0.225323433145773684E+06
    0.693056180375621333E+00   -0.185241990427965630E+01    0.399840032475484632E-02    0.225323433411886974E+06
    0.693073458797469621E+00   -0.185353990599301932E+01    0.399840032007867715E-02    0.225323435885621409E+06
    0.693282078680872549E+00   -0.185248534322374958E+01    0.399840028397525395E-02    0.225323437081564276E+06
    0.693272038986451178E+00   -0.185387674423114612E+01    0.399840028969942161E-02    0.225323442657998996E+06
    0.693029530479287392E+00   -0.185275788198522107E+01    0.399840032563120000E-02    0.225323445501227805E+06
    0.693352447908276992E+00   -0.185274585300005867E+01    0.399840027568387421E-02    0.225323452006904990E+06
    0.693036162906253250E+00   -0.185302836962348860E+01    0.399840032488021566E-02    0.225323456704221229E+06
    0.693383530119923819E+00   -0.185258092305578437E+01    0.399840027434558883E-02    0.225323462944702391E+06
    0.693298080016695795E+00   -0.185166988563097279E+01    0.399840028819631408E-02    0.225323463537703152E+06
    0.693248446005929941E+00   -0.185205049195403393E+01    0.399840028937155801E-02    0.225323465882138524E+06
    0.693046478387615350E+00   -0.185305232379428730E+01    0.399840032150505960E-02    0.225323467119399953E+06
    0.693106140798109394E+00   -0.185361870513727922E+01    0.399840031679306405E-02    0.225323473347236024E+06
    0.693106140798109394E+00   -0.185361870513727922E+01    0.399840031679306405E-02    0.225323473347236024E+06
    0.693049068704485682E+00   -0.185223052353148776E+01    0.399840032385221505E-02    0.225323480640992493E+06
    0.693258116208764208E+00   -0.185295986999678153E+01    0.399840028731798108E-02    0.225323492690809973E+06
    0.693262043093524349E+00   -0.185266804525673101E+01    0.399840029763425583E-02    0.225323496783754032E+06
    0.693262043093524349E+00   -0.185266804525673101E+01    0.399840029763425583E-02    0.225323496783754032E+06
    0.693374477058826488E+00   -0.185270246617163648E+01    0.399840027749310579E-02    0.225323503342044831E+06
    0.693264635040562238E+00   -0.185371817560033492E+01    0.399840028910253796E-02    0.225323509393429325E+06
    0.693056679713868196E+00   -0.185321670937798144E+01    0.399840032317882402E-02    0.225323510876372689E+06
    0.693189572610054650E+00   -0.185150612961009120E+01    0.399840030297004927E-02    0.225323512646797026E+06
    0.693225277589735511E+00   -0.185265737100065686E+01    0.399840029180025241E-02    0.225323513526628114E+06
    0.693040178599441670E+00   -0.185273824370487183E+01    0.399840032543769160E-02    0.225323514185698790E+06
    0.693062092445274280E+00   -0.185235075826085249E+01    0.399840032352834825E-02    0.225323514491499489E+06
    0.693092545566403762E+00   -0.185340856423050049E+01    0.399840031390314918E-02    0.225323515143862314E+06
    0.693063643249536177E+00   -0.185298938331587282E+01    0.399840031800259045E-02    0.225323520974812069E+06
    0.693161069828801768E+00   -0.185171721573542003E+01    0.399840030394907169E-02    0.225323523090608418E+06
    0.693105149620343530E+00   -0.185216330336626323E+01    0.399840031854899365E-02    0.225323524260313745E+06
    0.693378595230075945E+00   -0.185275783739832356E+01    0.399840027546657494E-02    0.225323526022402395E+06
    0.693295399800856083E+00   -0.185328571287711386E+01    0.399840029137688100E-02    0.225323530404796446E+06
    0.693040475302008407E+00   -0.185292759432418719E+01    0.399840032432334513E-02    0.225323532482877577E+06
    0.693325369238305234E+00   -0.185319521789309460E+01    0.399840027962723547E-02    0.225323536717499315E+06
    0.693171513096400349E+00   -0.185382815089625819E+01    0.399840030348606965E-02    0.225323540270153986E+06
    0.693296148237490861E+00   -0.185356348607151378E+01    0.399840028987959867E-02    0.225323543033184193E+06
    0.693327459485728936E+00   -0.185200257164599957E+01    0.399840028064721905E-02    0.225323548842790624E+06
    0.693044475711639185E+00   -0.185273001595679032E+01    0.399840032218955199E-02    0.225323549560931337E+06
    0.693350775919636342E+00   -0.185220618780329205E+01    0.399840028111036073E-02    0.225323552762273932E+06
    0.693106316056714578E+00   -0.185268744934615248E+01    0.399840031019590720E-02    0.225323554344326141E+06
    0.693106316056714578E+00   -0.185268744934615248E+01    0.399840031019590720E-02    0.225323554344326141E+06
    0.693189585398793162E+00   -0.185270952747521944E+01    0.399840029709966262E-02    0.225323560798294231E+06
    0.693283645383393710E+00   -0.185359255545614610E+01    0.399840028628044124E-02    0.225323563434445503E+06
    0.693203054814392594E+00   -0.185275165678268561E+01    0.399840029513870172E-02    0.225323564481509820E+06
    0.693356603108734371E+00   -0.185219490735768844E+01    0.399840027789157264E-02    0.225323565496005060E+06
    0.693194686596272036E+00   -0.185160929983446287E+01    0.399840030003357442E-02    0.225323566876771831E+06
    0.693150461247502570E+00   -0.185367469971671750E+01    0.399840030564541007E-02    0.225323567966896517E+06
    0.693088832133624710E+00   -0.185241911133620740E+01    0.399840032077619558E-02    0.225323569513697730E+06
    0.693232944269180251E+00   -0.185289449355600300E+01    0.399840029096183453E-02    0.225323569601998752E+06
    0.693189780955386636E+00   -0.185193658891564450E+01    0.399840029851282128E-02    0.225323570274662401E+06
    0.693283086218282385E+00   -0.185369592210455059E+01    0.399840029082015706E-02    0.225323574856974796E+06
    0.693078918812683020E+00   -0.185225508063567679E+01    0.399840031590149945E-02    0.225323577870996727E+06
    0.693128478130768388E+00   -0.185212415160426791E+01    0.399840031537967468E-02    0.225323584402126173E+06
    0.693343350873053099E+00   -0.185235550105518709E+01    0.399840028308085221E-02    0.225323584848708997E+06
    0.693361565828610416E+00   -0.185295267537863872E+01    0.399840027945081063E-02    0.225323584930318932E+06
    0.693059593826798159E+00   -0.185281476086988528E+01    0.399840032368171255E-02    0.225323590994541126E+06
    0.693263610542263153E+00   -0.185168205370831207E+01    0.399840029035410625E-02    0.225323598074747977E+06
    0.693322968975536913E+00   -0.185232224369143372E+01    0.399840028678121601E-02    0.225323598378676834E+06
    0.693099102434526104E+00   -0.185245102914839510E+01    0.399840031185144055E-02    0.225323605154319142E+06
    0.693178123058534768E+00   -0.185359260883959354E+01    0.399840030089512050E-02    0.225323607579664618E+06
    0.693229932136467886E+00   -0.185371612102228189E+01    0.399840029422383458E-02    0.225323610835908446E+06
    0.693288669758026832E+00   -0.185371148050761736E+01    0.399840028834569632E-02    0.225323611544790008E+06
    0.693136972264310591E+00   -0.185351150960843958E+01    0.399840031326712669E-02    0.225323611887757579E+06
    0.693161770666113508E+00   -0.185379359752845652E+01    0.399840030558970116E-02    0.225323613677322282E+06
    0.693163736065364633E+00   -0.185377889950580554E+01    0.399840030497452831E-02    0.225323616563516785E+06
    0.693064865620319770E+00   -0.185296174395040336E+01    0.399840032282671766E-02    0.225323617586023960E+06
    0.693127813836218354E+00   -0.185180953261114301E+01    0.399840031347896765E-02    0.225323618645439332E+06
    0.693349324841406545E+00   -0.185324669371595507E+01    0.399840027886181910E-02    0.225323619449683931E+06
    0.693082440837593960E+00   -0.185288931795082634E+01    0.399840032134586316E-02    0.225323619891701761E+06
    0.693092115483197602E+00   -0.185192680660047948E+01    0.399840031721872009E-02    0.225323621336127311E+06
    0.693155346806144546E+00   -0.185356560234660428E+01    0.399840031064335830E-02    0.225323621785699012E+06
    0.693303590234687905E+00   -0.185269077797802284E+01    0.399840029046329148E-02    0.225323624646295561E+06
    0.693130529889548486E+00   -0.185176863166992689E+01    0.399840030976814781E-02    0.225323632605936989E+06
    0.693289439529857332E+00   -0.185195450349046187E+01    0.399840029108509444E-02    0.225323635093207471E+06
    0.693326603272846897E+00   -0.185224918296072216E+01    0.399840028566192645E-02    0.225323636409791448E+06
    0.693116979803095279E+00   -0.185194725582150577E+01    0.399840031067404556E-02    0.225323638459417096E+06
    0.693174873047535334E+00   -0.185341601586797000E+01    0.399840030868666915E-02    0.225323645838042925E+06
    0.693115864279709615E+00   -0.185185246317002461E+01    0.399840031184553555E-02    0.225323646410533780E+06
    0.693060079433890253E+00   -0.185304508785204414E+01    0.399840032242659328E-02    0.225323646503109892E+06
    0.693295789212300395E+00   -0.185331593268528971E+01    0.399840029061443968E-02    0.225323650070199277E+06
    0.693359481934202493E+00   -0.185286873993683998E+01    0.399840027940637395E-02    0.225323652321899775E+06
    0.693321147986304509E+00   -0.185311975276284491E+01    0.399840028050213285E-02    0.225323653592442104E+06
    0.693191879750812090E+00   -0.185370827364634416E+01    0.399840029991692034E-02    0.225323654304376658E+06
    0.693222887653057618E+00   -0.185380024119696629E+01    0.399840029669768036E-02    0.225323658500784106E+06
    0.693126661511467179E+00   -0.185176791548644837E+01    0.399840031209291406E-02    0.225323663613793760E+06
    0.693114379887598830E+00   -0.185341402031530178E+01    0.399840031601168561E-02    0.225323667958173435E+06
    0.693215587592209359E+00   -0.185322692171602066E+01    0.399840030344198252E-02    0.225323668716787011E+06
    0.693104055579159661E+00   -0.185316328397112917E+01    0.399840031816441673E-02    0.225323676023146370E+06
    0.693058713625210210E+00   -0.185241889768559131E+01    0.399840032102800197E-02    0.225323676521942398E+06
    0.693221796079083852E+00   -0.185219780217336760E+01    0.399840030249855490E-02    0.225323682199990959E+06
    0.693097414150080748E+00   -0.185259353195195264E+01    0.399840031945167696E-02    0.225323688420297723E+06
    0.693355511250679069E+00   -0.185288000904619654E+01    0.399840027745186621E-02    0.225323692003336881E+06
    0.693204103932794302E+00   -0.185363046239082885E+01    0.399840029773723162E-02    0.225323692566576210E+06
    0.693347794693495723E+00   -0.185279913650042172E+01    0.399840027770438124E-02    0.225323692881147726E+06
    0.693328659141811521E+00   -0.185206764456610151E+01    0.399840028182286197E-02    0.225323699030522374E+06
    0.693290132897990130E+00   -0.185211765279544793E+01    0.399840028491200115E-02    0.225323703922410728E+06
    0.693207447522211306E+00   -0.185338855446384332E+01    0.399840030397481151E-02    0.225323704330071574E+06
    0.693345036790914193E+00   -0.185225837369041302E+01    0.399840028070548581E-02    0.225323707068126969E+06
    0.693129340819616413E+00   -0.185351619284683911E+01    0.399840030914953674E-02    0.225323708183371287E+06
    0.693320809804931826E+00   -0.185276899827493713E+01    0.399840028699026320E-02    0.225323720389705501E+06
    0.693327541035666961E+00   -0.185317965926339223E+01    0.399840028482319459E-02    0.225323720804153505E+06
    0.693179271101390326E+00   -0.185310776309883685E+01    0.399840029954640075E-02    0.225323721202569403E+06
    0.693151829080518533E+00   -0.185343602456037115E+01    0.399840031119290309E-02    0.225323726603762276E+06
    0.693258358621291704E+00   -0.185241877892272977E+01    0.399840028823182560E-02    0.225323728435479221E+06
    0.693164713428951806E+00   -0.185257303401570028E+01    0.399840031091031143E-02    0.225323733453013847E+06
    0.693276134555391610E+00   -0.185205129608950014E+01    0.399840029326842001E-02    0.225323734720991633E+06
    0.693111712603578733E+00   -0.185265208339379650E+01    0.399840031761312248E-02    0.225323738785720809E+06
    0.693155662365825820E+00   -0.185182455091820808E+01    0.399840030559149399E-02    0.225323742254540877E+06
    0.693100646810230647E+00   -0.185210010462436547E+01    0.399840031724268356E-02    0.225323746477971581E+06
    0.693130043642750326E+00   -0.185355848289210923E+01    0.399840030989128976E-02    0.225323749231578404E+06
    0.693279676750696350E+00   -0.185328226471939272E+01    0.399840029290923944E-02    0.225323757279503974E+06
    0.693165851287132151E+00   -0.185234337842973318E+01    0.399840030174556608E-02    0.225323760990675190E+06
    0.693311465392399628E+00   -0.185342091627450700E+01    0.399840028415414817E-02    0.225323762718653685E+06
    0.693244173575379596E+00   -0.185172507483109294E+01    0.399840029540163722E-02    0.225323765323952859E+06
    0.693135056529112892E+00   -0.185338160474990765E+01    0.399840031324344945E-02    0.225323767267269257E+06
    0.693222337379665432E+00   -0.185339796744977070E+01    0.399840029433353589E-02    0.225323775835575711E+06
    0.693309823169750761E+00   -0.185246062650190613E+01    0.399840028846137549E-02    0.225323776680442417E+06
    0.693203912642859854E+00   -0.185370396695590189E+01    0.399840030172725260E-02    0.225323777439833910E+06
    0.693344500678104048E+00   -0.185292350788292115E+01    0.399840027905442371E-02    0.225323777711448405E+06
    0.693237465249771034E+00   -0.185179614464984654E+01    0.399840029754834712E-02    0.225323781711875956E+06
    0.693236693418340488E+00   -0.185328267660074975E+01    0.399840029198127514E-02    0.225323786540056841E+06
    0.693193462137201011E+00   -0.185190877788794861E+01    0.399840029926018959E-02    0.225323789889944863E+06
    0.693186866814937130E+00   -0.185187643483108877E+01    0.399840030516529672E-02    0.225323845625459944E+06
    0.693249677759395500E+00   -0.185200622154170413E+01    0.399840029494489147E-02    0.225324025355191552E+06
    0.693158568818213250E+00   -0.185249478583835070E+01    0.399840030853874321E-02    0.225324248032967531E+06
    0.693158568818213250E+00   -0.185249478583835070E+01    0.399840030853874321E-02    0.225324248032967531E+06
    0.693220820445039743E+00   -0.185215756727898828E+01    0.399840029732831132E-02    0.225324197005302034E+06
    0.693252442795032953E+00   -0.185220205139874272E+01    0.399840029470658557E-02    0.225324152869245765E+06
    0.693278141151022931E+00   -0.185282040585406338E+01    0.399840029246870555E-02    0.225324061764500482E+06
    0.693175019626770639E+00   -0.185302580756144319E+01    0.399840030101213800E-02    0.225323940687786060E+06
    0.693136203793156658E+00   -0.185208976075318299E+01    0.399840030904094479E-02    0.225323970004201343E+06
    0.693163474258426504E+00   -0.185189051574471986E+01    0.399840030434132215E-02    0.225323819905865588E+06
    0.693189876672253402E+00   -0.185302065950305739E+01    0.399840030453352344E-02    0.225324235286939656E+06
    0.693163297176980886E+00   -0.185359408444051432E+01    0.399840030641196095E-02    0.225323881458139804E+06
    0.693124528787003924E+00   -0.185324076622022460E+01    0.399840031070829507E-02    0.225323985619698069E+06
    0.693146632614618841E+00   -0.185202805878589283E+01    0.399840030882042067E-02    0.225324009357314644E+06
    0.693245503392414308E+00   -0.185311036919175809E+01    0.399840029592405007E-02    0.225324217870927998E+06
    0.693245503392414308E+00   -0.185311036919175809E+01    0.399840029592405007E-02    0.225324217870927998E+06
    0.693139944986950085E+00   -0.185218361072597548E+01    0.399840030722304566E-02    0.225323915664848173E+06
    0.693206699058860010E+00   -0.185184070994517036E+01    0.399840029847311432E-02    0.225323866220005060E+06
    0.693163904518933394E+00   -0.185220107805955458E+01    0.399840030371784172E-02    0.225324000770088343E+06
    0.693192890903221559E+00   -0.185304528756878084E+01    0.399840029911563335E-02    0.225324084990276082E+06
    0.693192890903221559E+00   -0.185304528756878084E+01    0.399840029911563335E-02    0.225324084990276082E+06
    0.693195872258788426E+00   -0.185331093206399156E+01    0.399840030167500533E-02    0.225324189121172152E+06
    0.693284546795118528E+00   -0.185293817849945675E+01    0.399840028940158260E-02    0.225324193384658865E+06
    0.693212260228488142E+00   -0.185225968923278472E+01    0.399840030293403988E-02    0.225323931718471315E+06
    0.693189918798357896E+00   -0.185268328316395214E+01    0.399840030405312647E-02    0.225324336877282709E+06
    0.693189918798357896E+00   -0.185268328316395214E+01    0.399840030405312647E-02    0.225324336877282709E+06
    0.693271381402007836E+00   -0.185301834273864063E+01    0.399840029092463686E-02    0.225324229938580887E+06
    0.693294174789014450E+00   -0.185207037255837204E+01    0.399840028683335052E-02    0.225323917853879859E+06
    0.693193449533125672E+00   -0.185238426061148820E+01    0.399840030606144013E-02    0.225323898547021992E+06
    0.693203481437039359E+00   -0.185211373370666599E+01    0.399840030154813893E-02    0.225324165529996390E+06
    0.693239090421933213E+00   -0.185256133505118958E+01    0.399840029459721819E-02    0.225324342260314559E+06
    0.693239090421933213E+00   -0.185256133505118958E+01    0.399840029459721819E-02    0.225324342260314559E+06
    0.693327591105037500E+00   -0.185273448599102752E+01    0.399840028197544391E-02    0.225323959932183439E+06
    0.693297116547141767E+00   -0.185236859215756189E+01    0.399840028499061535E-02    0.225323970876566746E+06
    0.693217584488779792E+00   -0.185227432687838478E+01    0.399840029517929251E-02    0.225323967530542170E+06
    0.693177217754609498E+00   -0.185290926819332724E+01    0.399840030491191607E-02    0.225324349077141378E+06
    0.693140331179865288E+00   -0.185322077165209609E+01    0.399840031114951418E-02    0.225324058462043526E+06
    0.693225506299560035E+00   -0.185326497401396262E+01    0.399840029846154285E-02    0.225324186027862335E+06
    0.693287531891138009E+00   -0.185286959907937865E+01    0.399840029002174104E-02    0.225324136404252407E+06
    0.693287531891138009E+00   -0.185286959907937865E+01    0.399840029002174104E-02    0.225324136404252407E+06
    0.693339962114875585E+00   -0.185274300199724351E+01    0.399840028231390233E-02    0.225323826963215834E+06
    0.693219947477171528E+00   -0.185325553898977402E+01    0.399840029716078994E-02    0.225324196148713148E+06
    0.693219947477171528E+00   -0.185325553898977402E+01    0.399840029716078994E-02    0.225324196148713148E+06
    0.693176024884888831E+00   -0.185195428587848010E+01    0.399840030577896209E-02    0.225323989349418174E+06
    0.693081875647894585E+00   -0.185278049374430864E+01    0.399840031703734521E-02    0.225323890733225242E+06
    0.693269082749212950E+00   -0.185253355003500730E+01    0.399840029339869167E-02    0.225324136229890020E+06
    0.693227062059047161E+00   -0.185280936872491342E+01    0.399840029733567696E-02    0.225324390562599961E+06
    0.693227062059047161E+00   -0.185280936872491342E+01    0.399840029733567696E-02    0.225324390562599961E+06
    0.693169494947455389E+00   -0.185306779531518617E+01    0.399840030583302128E-02    0.225324285043405864E+06
    0.693328070248885986E+00   -0.185284460242810178E+01    0.399840028420662096E-02    0.225323893178707774E+06
    0.693122151017805610E+00   -0.185291202838613356E+01    0.399840031169700506E-02    0.225324150521490868E+06
    0.693307990735289814E+00   -0.185300525367572999E+01    0.399840028810659939E-02    0.225323871047595982E+06
    0.693193298138513492E+00   -0.185290962826515848E+01    0.399840030005948512E-02    0.225324266363908158E+06
    0.693215381120786511E+00   -0.185251024213332482E+01    0.399840029673932847E-02    0.225324251757207734E+06
    0.693215381120786511E+00   -0.185251024213332482E+01    0.399840029673932847E-02    0.225324251757207734E+06
    0.693181624261668738E+00   -0.185213513748008207E+01    0.399840030297031728E-02    0.225324165240159637E+06
    0.693097779379552970E+00   -0.185299204549935181E+01    0.399840031710024888E-02    0.225323952507169568E+06
    0.693279473316288586E+00   -0.185291158592585425E+01    0.399840028638634958E-02    0.225323938159227080E+06
    0.693146899165507535E+00   -0.185238029807289895E+01    0.399840030969785508E-02    0.225324204845412693E+06
    0.693119058184671566E+00   -0.185338956994351234E+01    0.399840031303061623E-02    0.225323892744732380E+06
    0.693135170702438019E+00   -0.185314878802713112E+01    0.399840030962521180E-02    0.225324115211077384E+06
    0.693164951790178785E+00   -0.185265955825477779E+01    0.399840030492099735E-02    0.225324306651073071E+06
    0.693192435580187061E+00   -0.185249759729006214E+01    0.399840030207233681E-02    0.225324371030461945E+06
    0.693099274737674853E+00   -0.185242890056369314E+01    0.399840031619187915E-02    0.225323994211648300E+06
    0.693084517341626571E+00   -0.185273360161285172E+01    0.399840031813128438E-02    0.225323944223710714E+06
    0.693265891471256723E+00   -0.185316815466638074E+01    0.399840028900287116E-02    0.225323997544784070E+06
    0.693152854473986557E+00   -0.185333968716205977E+01    0.399840031012131236E-02    0.225323945066502347E+06
    0.693121592373329487E+00   -0.185252453359707303E+01    0.399840031233712583E-02    0.225324160422361543E+06
    0.693134659508197748E+00   -0.185191074989924931E+01    0.399840031030840575E-02    0.225323853437168087E+06
    0.693233659147970527E+00   -0.185291992952360740E+01    0.399840029677913690E-02    0.225324354564650042E+06
    0.693233659147970527E+00   -0.185291992952360740E+01    0.399840029677913690E-02    0.225324354564650042E+06
    0.693181532961247293E+00   -0.185253450490058746E+01    0.399840030264062094E-02    0.225324330631158606E+06
    0.693282328670684289E+00   -0.185309596978517543E+01    0.399840028787255396E-02    0.225324102398185059E+06
    0.693282328670684289E+00   -0.185309596978517543E+01    0.399840028787255396E-02    0.225324102398185059E+06
    0.693200250178473421E+00   -0.185248369992998985E+01    0.399840030278295500E-02    0.225324294460277742E+06
    0.693277143403590368E+00   -0.185206755188779182E+01    0.399840028721373288E-02    0.225323795826758898E+06
    0.693091054226644521E+00   -0.185261830422423524E+01    0.399840031696779927E-02    0.225323989221216965E+06
    0.693214046647988691E+00   -0.185248275555919428E+01    0.399840029875497046E-02    0.225324370397594321E+06
    0.693137171357440574E+00   -0.185233928351835520E+01    0.399840031148817557E-02    0.225324125349389244E+06
    0.693259703692202023E+00   -0.185311744813646473E+01    0.399840029228192527E-02    0.225324227660527744E+06
    0.693259703692202023E+00   -0.185311744813646473E+01    0.399840029228192527E-02    0.225324227660527744E+06
    0.693318457712037706E+00   -0.185272484864101594E+01    0.399840028159568085E-02    0.225323876389693498E+06
    0.693188422168393159E+00   -0.185333026717465699E+01    0.399840030450202954E-02    0.225324085267548129E+06
    0.693217976810516112E+00   -0.185310917281067500E+01    0.399840030192544302E-02    0.225323990432756022E+06
    0.693118851421370308E+00   -0.185205720413158104E+01    0.399840031381327576E-02    0.225323881575302687E+06
    0.693209203627915160E+00   -0.185236841187295576E+01    0.399840030131105775E-02    0.225324272086443671E+06
    0.693209203627915160E+00   -0.185236841187295576E+01    0.399840030131105775E-02    0.225324272086443671E+06
    0.693106813141554756E+00   -0.185291196336018338E+01    0.399840031493873746E-02    0.225324071464504639E+06
    0.693212060111920603E+00   -0.185275239026283467E+01    0.399840029506446856E-02    0.225323895850618050E+06
    0.693289321202617881E+00   -0.185216667129109958E+01    0.399840028886393802E-02    0.225324015258140978E+06
    0.693183590097438351E+00   -0.185335138947867994E+01    0.399840030490034807E-02    0.225324088912165316E+06
    0.693271735885088503E+00   -0.185248263957941295E+01    0.399840029409868122E-02    0.225323948286222760E+06
    0.693195247343482812E+00   -0.185282974997970706E+01    0.399840030161805523E-02    0.225324393808103516E+06
    0.693195247343482812E+00   -0.185282974997970706E+01    0.399840030161805523E-02    0.225324393808103516E+06
    0.693175842907623130E+00   -0.185303315892150056E+01    0.399840030657007319E-02    0.225324208054937684E+06
    0.693175842907623130E+00   -0.185303315892150056E+01    0.399840030657007319E-02    0.225324208054937684E+06
    0.693208976557311618E+00   -0.185190178912714609E+01    0.399840030112593066E-02    0.225323963283105259E+06
    0.693228685557284785E+00   -0.185222038902780106E+01    0.399840029470223835E-02    0.225324102588359092E+06
    0.693335127502611615E+00   -0.185248336275131420E+01    0.399840028264963378E-02    0.225323857591717300E+06
    0.693154885964070711E+00   -0.185354109570464098E+01    0.399840030832219508E-02    0.225323896800493851E+06
    0.693160904028417679E+00   -0.185315381279322167E+01    0.399840031026648616E-02    0.225323883864492556E+06
    0.693126539604088321E+00   -0.185268013453269398E+01    0.399840031391221051E-02    0.225324074705305888E+06
    0.693126539604088321E+00   -0.185268013453269398E+01    0.399840031391221051E-02    0.225324074705305888E+06
    0.693315458467218315E+00   -0.185323724738191475E+01    0.399840028628568791E-02    0.225323799922489125E+06
    0.693187549944532466E+00   -0.185224640396597851E+01    0.399840030221412616E-02    0.225324248272898287E+06
    0.693111274988083226E+00   -0.185303535330779146E+01    0.399840031606891067E-02    0.225323935453895305E+06
    0.693140241649314759E+00   -0.185298732055663229E+01    0.399840031094572147E-02    0.225324184008502139E+06
    0.693215100900599457E+00   -0.185346422153489132E+01    0.399840030205626633E-02    0.225323796195672039E+06
    0.693270667355021519E+00   -0.185223810835320601E+01    0.399840029265864129E-02    0.225324069623487943E+06
    0.693271524754462964E+00   -0.185194372319628364E+01    0.399840028929618948E-02    0.225323862369739829E+06
    0.693187850646502346E+00   -0.185340650787126382E+01    0.399840030407798159E-02    0.225324065582378418E+06
    0.693172101078782132E+00   -0.185230565970284022E+01    0.399840030439777613E-02    0.225324251768404327E+06
    0.693172101078782132E+00   -0.185230565970284022E+01    0.399840030439777613E-02    0.225324251768404327E+06
    0.693306227964536004E+00   -0.185243647314185078E+01    0.399840028537724358E-02    0.225324063789191569E+06
    0.693150152413489651E+00   -0.185207591578374098E+01    0.399840030873434456E-02    0.225324055793401087E+06
    0.693145225180535562E+00   -0.185221286786642247E+01    0.399840031151119969E-02    0.225323968777257338E+06
    0.693287014018897141E+00   -0.185303134865658148E+01    0.399840028502402439E-02    0.225323816321503196E+06
    0.693254054920843577E+00   -0.185279883319700311E+01    0.399840028890567460E-02    0.225323805202869669E+06
    0.693196066608071648E+00   -0.185305488943683994E+01    0.399840030197000026E-02    0.225324331271675968E+06
    0.693242028289821177E+00   -0.185240030201236872E+01    0.399840029768046452E-02    0.225324124325124896E+06
    0.693280592777931526E+00   -0.185260611322475777E+01    0.399840029153654842E-02    0.225324125848608499E+06
    0.693192434968509241E+00   -0.185308940565639979E+01    0.399840029867076265E-02    0.225323974271232873E+06
    0.693083296390760384E+00   -0.185256740497755379E+01    0.399840031881462492E-02    0.225323905684538709E+06
    0.693144014185248847E+00   -0.185332442951274268E+01    0.399840030734728569E-02    0.225323968324719230E+06
    0.693303541602305118E+00   -0.185249865194910335E+01    0.399840028298625513E-02    0.225323822485764424E+06
    0.693197208234128781E+00   -0.185209228362959011E+01    0.399840030446448058E-02    0.225323935246252338E+06
    0.693193120378917893E+00   -0.185303754132262055E+01    0.399840030344501482E-02    0.225324288497096131E+06
    0.693215823361148620E+00   -0.185190813312444869E+01    0.399840029628564797E-02    0.225323830897324020E+06
    0.693227287644616164E+00   -0.185310998157390183E+01    0.399840029560003321E-02    0.225324234704672737E+06
    0.693303846428110160E+00   -0.185293977369765406E+01    0.399840028800179433E-02    0.225324002255467727E+06
    0.693194390239681990E+00   -0.185238681045688480E+01    0.399840029931080275E-02    0.225324147632276610E+06
    0.693211313748159697E+00   -0.185232849091530483E+01    0.399840030222856080E-02    0.225324112058873812E+06
    0.693325935660197401E+00   -0.185304575706689301E+01    0.399840028155644921E-02    0.225323868438849313E+06
    0.693189346881700974E+00   -0.185221464597506902E+01    0.399840030098277521E-02    0.225324167733308859E+06
    0.693189346881700974E+00   -0.185221464597506902E+01    0.399840030098277521E-02    0.225324167733308859E+06
    0.693342008559503564E+00   -0.185269905509678168E+01    0.399840028156646810E-02    0.225323839911739196E+06
    0.693131749047080969E+00   -0.185312816835347660E+01    0.399840031119033743E-02    0.225324127832146507E+06
    0.693249404646572143E+00   -0.185300798908424857E+01    0.399840029421330220E-02    0.225324302237901051E+06
    0.693126881071528200E+00   -0.185264800323996215E+01    0.399840031105576539E-02    0.225324196220856422E+06
    0.693126881071528200E+00   -0.185264800323996215E+01    0.399840031105576539E-02    0.225324196220856422E+06
    0.693250984963685202E+00   -0.185354032691250992E+01    0.399840029361465173E-02    0.225323940452402894E+06
    0.693232183818986769E+00   -0.185213688965742929E+01    0.399840029397777533E-02    0.225324014496690186E+06
    0.693190838634737183E+00   -0.185252914547414749E+01    0.399840029910647401E-02    0.225324071933186002E+06
    0.693255076976208584E+00   -0.185220892501094192E+01    0.399840029353159317E-02    0.225324182195703528E+06
    0.693255076976208584E+00   -0.185220892501094192E+01    0.399840029353159317E-02    0.225324182195703528E+06
    0.693282222466294895E+00   -0.185306051699008734E+01    0.399840028665511375E-02    0.225323984867118124E+06
    0.693240443634591696E+00   -0.185301551740629011E+01    0.399840029179002882E-02    0.225323988129082194E+06
    0.693189869492165878E+00   -0.185202775687568932E+01    0.399840030141041230E-02    0.225324073581021308E+06
    0.693100897206430866E+00   -0.185288752531891143E+01    0.399840031814070393E-02    0.225323839181892166E+06
    0.693208968441393125E+00   -0.185317589631214585E+01    0.399840029969997495E-02    0.225324279170278576E+06
    0.693300791378376968E+00   -0.185255147531229003E+01    0.399840028648207162E-02    0.225324130433937506E+06
    0.693208192542528523E+00   -0.185256779510758007E+01    0.399840030045794503E-02    0.225324386890254595E+06
    0.693208192542528523E+00   -0.185256779510758007E+01    0.399840030045794503E-02    0.225324386890254595E+06
    0.693283070500390397E+00   -0.185298551711881454E+01    0.399840028657682828E-02    0.225324014797317970E+06
    0.693250450384576888E+00   -0.185269931642687569E+01    0.399840029586627857E-02    0.225324239618314139E+06
    0.693198308428055854E+00   -0.185301572541711024E+01    0.399840029810701394E-02    0.225324061086621019E+06
    0.693198308428055854E+00   -0.185301572541711024E+01    0.399840029810701394E-02    0.225324061086621019E+06
    0.693244059620654385E+00   -0.185286256697554252E+01    0.399840029920158109E-02    0.225323811853979045E+06
    0.693105615585115076E+00   -0.185285319366712131E+01    0.399840031357426122E-02    0.225324043228022550E+06
    0.693112229092737953E+00   -0.185254893947909527E+01    0.399840031378898182E-02    0.225324114519574679E+06
    0.693283922046047607E+00   -0.185314155978999762E+01    0.399840029180607848E-02    0.225323905954479647E+06
    0.693304593063269303E+00   -0.185223799256214305E+01    0.399840028427315714E-02    0.225323902206778061E+06
    0.693177850410789720E+00   -0.185204225247883181E+01    0.399840030520473132E-02    0.225324086134752666E+06
    0.693097758916866535E+00   -0.185216292227937385E+01    0.399840031620535968E-02    0.225323854853090132E+06
    0.693267048141247955E+00   -0.185301277080428628E+01    0.399840028989630145E-02    0.225324183534343960E+06
    0.693142487812443364E+00   -0.185316522784965443E+01    0.399840031053886723E-02    0.225324120486831409E+06
    0.693142487812443364E+00   -0.185316522784965443E+01    0.399840031053886723E-02    0.225324120486831409E+06
    0.693324427832663681E+00   -0.185274576174511463E+01    0.399840028196840353E-02    0.225323957695549558E+06
    0.693223830821148246E+00   -0.185256912305598043E+01    0.399840029699562605E-02    0.225324373871841148E+06
    0.693272611458825461E+00   -0.185263656471012128E+01    0.399840029371095924E-02    0.225324018710367411E+06
    0.693251534368456879E+00   -0.185279061297945535E+01    0.399840029540633572E-02    0.225324264523950114E+06
    0.693191347070038044E+00   -0.185364472674589753E+01    0.399840030356243478E-02    0.225323836807866726E+06
    0.693280247638275005E+00   -0.185279746044973992E+01    0.399840028814676170E-02    0.225324192349545949E+06
    0.693280247638275005E+00   -0.185279746044973992E+01    0.399840028814676170E-02    0.225324192349545949E+06
    0.693184492506199068E+00   -0.185204491867842713E+01    0.399840030568261902E-02    0.225323973906673986E+06
    0.693081488876136409E+00   -0.185286400154714515E+01    0.399840031727438042E-02    0.225323887310726859E+06
    0.693213225301744340E+00   -0.185245827831209131E+01    0.399840029687027927E-02    0.225324215618634509E+06
    0.693128714026670867E+00   -0.185302042841321657E+01    0.399840031055646514E-02    0.225324142607811809E+06
    0.693247546895571443E+00   -0.185286063923631295E+01    0.399840029641390995E-02    0.225324218823065225E+06
    0.693229611790588285E+00   -0.185174188553938546E+01    0.399840029722748572E-02    0.225323818079575780E+06
    0.693324145189737395E+00   -0.185270948694270166E+01    0.399840028252764802E-02    0.225323986791026982E+06
    0.693255749666468191E+00   -0.185289737867425020E+01    0.399840029364586461E-02    0.225324309075815458E+06
    0.693213891220065381E+00   -0.185342906536586027E+01    0.399840029866611445E-02    0.225324094199136627E+06
    0.693333240675355067E+00   -0.185267048233483167E+01    0.399840028273152747E-02    0.225323912499697704E+06
    0.693224438209426252E+00   -0.185233847783723071E+01    0.399840030196698792E-02    0.225323791002348938E+06
    0.693198177167233642E+00   -0.185189867992751056E+01    0.399840030137616452E-02    0.225324002188853920E+06
    0.693157055833100277E+00   -0.185303721643497132E+01    0.399840030397714818E-02    0.225323962927159417E+06
    0.693263758743408176E+00   -0.185287751066948481E+01    0.399840029309604834E-02    0.225324258803750825E+06
    0.693130946075878218E+00   -0.185293721170022874E+01    0.399840031297275626E-02    0.225324099848401005E+06
    0.693221270461468531E+00   -0.185255107090415305E+01    0.399840029972115679E-02    0.225324309348179959E+06
    0.693332833188487929E+00   -0.185305206983911397E+01    0.399840028048523664E-02    0.225323809360702493E+06
    0.693128412876102384E+00   -0.185307363493547639E+01    0.399840030932907282E-02    0.225324017227423639E+06
    0.693175951554169334E+00   -0.185355333418785806E+01    0.399840030502091569E-02    0.225323947172283952E+06
    0.693152178437087763E+00   -0.185263149349542733E+01    0.399840031148384224E-02    0.225323980171895295E+06
    0.693136905966541095E+00   -0.185219546413841263E+01    0.399840031071193192E-02    0.225324086264060694E+06
    0.693164760936571644E+00   -0.185256949261624415E+01    0.399840030962491516E-02    0.225324017733037734E+06
    0.693309064777267170E+00   -0.185279654879254152E+01    0.399840028684103708E-02    0.225324035491401737E+06
    0.693174070925661634E+00   -0.185284543280171832E+01    0.399840030722417496E-02    0.225324208444388321E+06
    0.693174070925661634E+00   -0.185284543280171832E+01    0.399840030722417496E-02    0.225324208444388321E+06
    0.693210353402773927E+00   -0.185261886633059292E+01    0.399840029506947151E-02    0.225323831798635161E+06
    0.693249972262548475E+00   -0.185204549490174464E+01    0.399840029533069137E-02    0.225324029292406689E+06
    0.693240822321153471E+00   -0.185282700401702782E+01    0.399840029813235132E-02    0.225324134749912831E+06
    0.693302728294477477E+00   -0.185282416059270916E+01    0.399840028450636036E-02    0.225324041287590429E+06
    0.693325846231659382E+00   -0.185221645735375429E+01    0.399840028221661210E-02    0.225323821790577989E+06
    0.693141863531612779E+00   -0.185298578526979330E+01    0.399840031123052751E-02    0.225324149053748668E+06
    0.693115812240856943E+00   -0.185298206717075531E+01    0.399840031655634108E-02    0.225323809212221153E+06
    0.693102550808373019E+00   -0.185282092991767300E+01    0.399840031754503285E-02    0.225323911321854015E+06
    0.693286347355077437E+00   -0.185326934803919796E+01    0.399840028794457708E-02    0.225324023040876433E+06
    0.693122720199402242E+00   -0.185292140905110614E+01    0.399840031211611772E-02    0.225324162086969125E+06
    0.693253383994670402E+00   -0.185295361063856667E+01    0.399840029129121602E-02    0.225324187821893254E+06
    0.693130355735194992E+00   -0.185324609673485607E+01    0.399840030824924648E-02    0.225323824578688538E+06
    0.693128056385535540E+00   -0.185324311402132968E+01    0.399840031179830597E-02    0.225324043946742255E+06
    0.693258029560668732E+00   -0.185317531672702085E+01    0.399840029086835982E-02    0.225324108767735044E+06
    0.693258029560668732E+00   -0.185317531672702085E+01    0.399840029086835982E-02    0.225324108767735044E+06
    0.693264382156357883E+00   -0.185214718567026670E+01    0.399840029375050920E-02    0.225324016810523142E+06
    0.693332139003660530E+00   -0.185285867391461223E+01    0.399840028065008742E-02    0.225323875340044266E+06
    0.693281401641910766E+00   -0.185244419136427041E+01    0.399840028596843994E-02    0.225323880701992224E+06
    0.693162611484219648E+00   -0.185205640725365628E+01    0.399840030747881416E-02    0.225324059154086310E+06
    0.693201000460458516E+00   -0.185314506739496587E+01    0.399840030007054831E-02    0.225324272951045219E+06
